FANN_FLO_2.1
num_layers=3
learning_rate=0.700000
connection_rate=1.000000
network_type=0
learning_momentum=0.000000
training_algorithm=2
train_error_function=1
train_stop_function=0
cascade_output_change_fraction=0.010000
quickprop_decay=-0.000100
quickprop_mu=1.750000
rprop_increase_factor=1.200000
rprop_decrease_factor=0.500000
rprop_delta_min=0.000000
rprop_delta_max=50.000000
rprop_delta_zero=0.100000
cascade_output_stagnation_epochs=12
cascade_candidate_change_fraction=0.010000
cascade_candidate_stagnation_epochs=12
cascade_max_out_epochs=150
cascade_min_out_epochs=50
cascade_max_cand_epochs=150
cascade_min_cand_epochs=50
cascade_num_candidate_groups=2
bit_fail_limit=3.49999994039535522461e-01
cascade_candidate_limit=1.00000000000000000000e+03
cascade_weight_multiplier=4.00000005960464477539e-01
cascade_activation_functions_count=10
cascade_activation_functions=3 5 7 8 10 11 14 15 16 17 
cascade_activation_steepnesses_count=4
cascade_activation_steepnesses=2.50000000000000000000e-01 5.00000000000000000000e-01 7.50000000000000000000e-01 1.00000000000000000000e+00 
layer_sizes=4 4 4 
scale_included=0
neurons (num_inputs, activation_function, activation_steepness)=(0, 0, 0.00000000000000000000e+00) (0, 0, 0.00000000000000000000e+00) (0, 0, 0.00000000000000000000e+00) (0, 0, 0.00000000000000000000e+00) (4, 5, 5.00000000000000000000e-01) (4, 5, 5.00000000000000000000e-01) (4, 5, 5.00000000000000000000e-01) (0, 5, 0.00000000000000000000e+00) (4, 5, 5.00000000000000000000e-01) (4, 5, 5.00000000000000000000e-01) (4, 5, 5.00000000000000000000e-01) (0, 5, 0.00000000000000000000e+00) 
connections (connected_to_neuron, weight)=(0, 3.31236648559570312500e+01) (1, 3.31762123107910156250e+01) (2, 1.10362594604492187500e+02) (3, -5.17764892578125000000e+01) (0, 4.07917201519012451172e-01) (1, 4.07915949821472167969e-01) (2, 1.55505156517028808594e+00) (3, -1.12391638755798339844e+00) (0, -8.54441165924072265625e-01) (1, -8.53545844554901123047e-01) (2, -3.32930874824523925781e+00) (3, 1.72177779674530029297e+00) (4, -2.92762041091918945312e+00) (5, -2.52319872379302978516e-01) (6, -2.38696709275245666504e-01) (7, 2.83225989341735839844e+00) (4, 2.10898518562316894531e+00) (5, -1.34426660537719726562e+01) (6, -5.39410638809204101562e+00) (7, -5.24422645568847656250e-01) (4, 4.48162525892257690430e-01) (5, 1.87512855529785156250e+01) (6, 1.04274597167968750000e+01) (7, 2.65935969352722167969e+00) 
