FANN_FLO_2.1
num_layers=3
learning_rate=0.700000
connection_rate=1.000000
network_type=0
learning_momentum=0.000000
training_algorithm=2
train_error_function=1
train_stop_function=0
cascade_output_change_fraction=0.010000
quickprop_decay=-0.000100
quickprop_mu=1.750000
rprop_increase_factor=1.200000
rprop_decrease_factor=0.500000
rprop_delta_min=0.000000
rprop_delta_max=50.000000
rprop_delta_zero=0.100000
cascade_output_stagnation_epochs=12
cascade_candidate_change_fraction=0.010000
cascade_candidate_stagnation_epochs=12
cascade_max_out_epochs=150
cascade_min_out_epochs=50
cascade_max_cand_epochs=150
cascade_min_cand_epochs=50
cascade_num_candidate_groups=2
bit_fail_limit=3.49999994039535522461e-01
cascade_candidate_limit=1.00000000000000000000e+03
cascade_weight_multiplier=4.00000005960464477539e-01
cascade_activation_functions_count=10
cascade_activation_functions=3 5 7 8 10 11 14 15 16 17 
cascade_activation_steepnesses_count=4
cascade_activation_steepnesses=2.50000000000000000000e-01 5.00000000000000000000e-01 7.50000000000000000000e-01 1.00000000000000000000e+00 
layer_sizes=9 9 7 
scale_included=0
neurons (num_inputs, activation_function, activation_steepness)=(0, 0, 0.00000000000000000000e+00) (0, 0, 0.00000000000000000000e+00) (0, 0, 0.00000000000000000000e+00) (0, 0, 0.00000000000000000000e+00) (0, 0, 0.00000000000000000000e+00) (0, 0, 0.00000000000000000000e+00) (0, 0, 0.00000000000000000000e+00) (0, 0, 0.00000000000000000000e+00) (0, 0, 0.00000000000000000000e+00) (9, 5, 5.00000000000000000000e-01) (9, 5, 5.00000000000000000000e-01) (9, 5, 5.00000000000000000000e-01) (9, 5, 5.00000000000000000000e-01) (9, 5, 5.00000000000000000000e-01) (9, 5, 5.00000000000000000000e-01) (9, 5, 5.00000000000000000000e-01) (9, 5, 5.00000000000000000000e-01) (0, 5, 0.00000000000000000000e+00) (9, 5, 5.00000000000000000000e-01) (9, 5, 5.00000000000000000000e-01) (9, 5, 5.00000000000000000000e-01) (9, 5, 5.00000000000000000000e-01) (9, 5, 5.00000000000000000000e-01) (9, 5, 5.00000000000000000000e-01) (0, 5, 0.00000000000000000000e+00) 
connections (connected_to_neuron, weight)=(0, 1.50000000000000000000e+03) (1, 1.50000000000000000000e+03) (2, 1.50000000000000000000e+03) (3, 1.50000000000000000000e+03) (4, 1.50000000000000000000e+03) (5, 1.50000000000000000000e+03) (6, 1.50000000000000000000e+03) (7, 1.50000000000000000000e+03) (8, 1.50000000000000000000e+03) (0, -1.50000000000000000000e+03) (1, -1.50000000000000000000e+03) (2, -1.50000000000000000000e+03) (3, -1.50000000000000000000e+03) (4, -1.50000000000000000000e+03) (5, -1.50000000000000000000e+03) (6, -1.50000000000000000000e+03) (7, -1.50000000000000000000e+03) (8, -1.50000000000000000000e+03) (0, -4.69297230243682861328e-01) (1, 2.96379774808883666992e-01) (2, -1.27420097589492797852e-01) (3, 2.72346675395965576172e-01) (4, -5.52208274602890014648e-02) (5, 3.67958068847656250000e-01) (6, -4.00719165802001953125e-01) (7, 3.38844269514083862305e-01) (8, 4.20446246862411499023e-01) (0, 1.50000000000000000000e+03) (1, 1.50000000000000000000e+03) (2, 1.50000000000000000000e+03) (3, 1.50000000000000000000e+03) (4, 1.50000000000000000000e+03) (5, 1.50000000000000000000e+03) (6, 1.50000000000000000000e+03) (7, 1.50000000000000000000e+03) (8, 1.50000000000000000000e+03) (0, 1.69320255517959594727e-02) (1, 8.56571272015571594238e-03) (2, 2.78012961149215698242e-01) (3, -3.07037476450204849243e-02) (4, 7.21253678202629089355e-02) (5, -3.82263911888003349304e-03) (6, 4.30060224607586860657e-03) (7, 1.45157739520072937012e-01) (8, 7.68858939409255981445e-02) (0, -1.50000000000000000000e+03) (1, -1.50000000000000000000e+03) (2, -1.50000000000000000000e+03) (3, -1.50000000000000000000e+03) (4, -1.50000000000000000000e+03) (5, -1.50000000000000000000e+03) (6, -1.50000000000000000000e+03) (7, -1.50000000000000000000e+03) (8, -1.50000000000000000000e+03) (0, 4.56511557102203369141e-01) (1, -2.46149107813835144043e-01) (2, 2.63782083988189697266e-01) (3, 1.62058860063552856445e-01) (4, -1.34641742706298828125e+00) (5, 1.59845754504203796387e-01) (6, -3.29868733882904052734e-01) (7, 4.91407439112663269043e-02) (8, 1.66213899850845336914e-01) (0, 1.16558432579040527344e+00) (1, -2.06114220619201660156e+00) (2, 4.51915681362152099609e-01) (3, 1.44194036722183227539e-01) (4, 2.46361747384071350098e-01) (5, 2.74962663650512695312e-01) (6, 5.30338764190673828125e-01) (7, -8.78979384899139404297e-01) (8, 8.24100449681282043457e-02) (9, 5.68729162216186523438e+00) (10, -1.25132545828819274902e-01) (11, 1.58574686050415039062e+01) (12, 1.63819992542266845703e+00) (13, -2.93891143798828125000e+01) (14, 7.61074721813201904297e-02) (15, 1.70242347717285156250e+01) (16, -1.10056171417236328125e+01) (17, 1.22468018531799316406e+00) (9, -1.75617599487304687500e+00) (10, 1.59791707992553710938e+00) (11, -7.17335510253906250000e+01) (12, -1.24294042587280273438e+00) (13, 1.86586532592773437500e+02) (14, 5.06371164321899414062e+00) (15, 1.20815505981445312500e+01) (16, -3.29795989990234375000e+01) (17, -7.79248774051666259766e-01) (9, -3.61432909965515136719e+00) (10, 2.21156430244445800781e+00) (11, 1.02048393249511718750e+02) (12, -1.75947833061218261719e+00) (13, -1.02366508483886718750e+02) (14, 1.76254785060882568359e+00) (15, 3.88008564710617065430e-01) (16, 5.28942489624023437500e+01) (17, -4.50811475515365600586e-01) (9, 5.45390319824218750000e+00) (10, -5.65143935382366180420e-02) (11, -1.74446427822113037109e+00) (12, 1.34378230571746826172e+00) (13, -8.19933242797851562500e+01) (14, -1.57152041792869567871e-01) (15, -2.97214450836181640625e+01) (16, 4.67360210418701171875e+00) (17, 1.90252196788787841797e+00) (9, 2.99877786636352539062e+00) (10, 1.30085694789886474609e+00) (11, -3.77194911241531372070e-01) (12, -7.04822093248367309570e-02) (13, -4.12470340728759765625e+00) (14, 1.02154016494750976562e+00) (15, -1.12512364983558654785e-01) (16, -4.09011356532573699951e-02) (17, 1.60623654723167419434e-01) (9, 1.12558782100677490234e+00) (10, 5.22435843944549560547e-01) (11, -1.86582595109939575195e-01) (12, -8.03404767066240310669e-03) (13, -1.21080994606018066406e+00) (14, 7.28428304195404052734e-01) (15, -3.02191507071256637573e-02) (16, -4.08658683300018310547e-02) (17, 3.76916587352752685547e-01) 
