FANN_FLO_2.1
num_layers=3
learning_rate=0.700000
connection_rate=1.000000
network_type=0
learning_momentum=0.000000
training_algorithm=2
train_error_function=1
train_stop_function=0
cascade_output_change_fraction=0.010000
quickprop_decay=-0.000100
quickprop_mu=1.750000
rprop_increase_factor=1.200000
rprop_decrease_factor=0.500000
rprop_delta_min=0.000000
rprop_delta_max=50.000000
rprop_delta_zero=0.100000
cascade_output_stagnation_epochs=12
cascade_candidate_change_fraction=0.010000
cascade_candidate_stagnation_epochs=12
cascade_max_out_epochs=150
cascade_min_out_epochs=50
cascade_max_cand_epochs=150
cascade_min_cand_epochs=50
cascade_num_candidate_groups=2
bit_fail_limit=3.49999994039535522461e-01
cascade_candidate_limit=1.00000000000000000000e+03
cascade_weight_multiplier=4.00000005960464477539e-01
cascade_activation_functions_count=10
cascade_activation_functions=3 5 7 8 10 11 14 15 16 17 
cascade_activation_steepnesses_count=4
cascade_activation_steepnesses=2.50000000000000000000e-01 5.00000000000000000000e-01 7.50000000000000000000e-01 1.00000000000000000000e+00 
layer_sizes=9 9 3 
scale_included=0
neurons (num_inputs, activation_function, activation_steepness)=(0, 0, 0.00000000000000000000e+00) (0, 0, 0.00000000000000000000e+00) (0, 0, 0.00000000000000000000e+00) (0, 0, 0.00000000000000000000e+00) (0, 0, 0.00000000000000000000e+00) (0, 0, 0.00000000000000000000e+00) (0, 0, 0.00000000000000000000e+00) (0, 0, 0.00000000000000000000e+00) (0, 0, 0.00000000000000000000e+00) (9, 5, 5.00000000000000000000e-01) (9, 5, 5.00000000000000000000e-01) (9, 5, 5.00000000000000000000e-01) (9, 5, 5.00000000000000000000e-01) (9, 5, 5.00000000000000000000e-01) (9, 5, 5.00000000000000000000e-01) (9, 5, 5.00000000000000000000e-01) (9, 5, 5.00000000000000000000e-01) (0, 5, 0.00000000000000000000e+00) (9, 5, 5.00000000000000000000e-01) (9, 5, 5.00000000000000000000e-01) (0, 5, 0.00000000000000000000e+00) 
connections (connected_to_neuron, weight)=(0, -8.89321684837341308594e-01) (1, 9.12110060453414916992e-02) (2, 1.49115169048309326172e+00) (3, -2.43087247014045715332e-01) (4, -8.49941313266754150391e-01) (5, 9.41566303372383117676e-02) (6, 4.68668878078460693359e-01) (7, 2.59285986423492431641e-01) (8, 1.35558232665061950684e-01) (0, -6.73787176609039306641e-01) (1, 4.40157530829310417175e-03) (2, 1.76359915733337402344e+00) (3, -1.33001863956451416016e-01) (4, 2.15473875403404235840e-01) (5, 3.86686086654663085938e-01) (6, 4.68568801879882812500e-01) (7, -2.23852843046188354492e-01) (8, 4.20966371893882751465e-02) (0, -1.27885807305574417114e-02) (1, 1.68899819254875183105e-01) (2, 1.84316366910934448242e-01) (3, 3.93535077571868896484e-01) (4, 1.82017475366592407227e-01) (5, -1.57975614070892333984e+00) (6, 2.02329754829406738281e+00) (7, 1.87726306915283203125e+00) (8, 1.71950504183769226074e-01) (0, -7.74630606174468994141e-01) (1, -1.03449180722236633301e-01) (2, -1.68498325347900390625e+00) (3, -6.73543393611907958984e-01) (4, -1.91814649105072021484e+00) (5, 1.94791257381439208984e+00) (6, 4.94713211059570312500e+00) (7, 1.46755373477935791016e+00) (8, -3.40025722980499267578e-01) (0, -6.21171891689300537109e-01) (1, 2.60717216879129409790e-02) (2, 1.21459841728210449219e+00) (3, -1.45642578601837158203e-01) (4, -4.95539635419845581055e-01) (5, 2.25792169570922851562e-01) (6, 3.74528050422668457031e-01) (7, 1.61346167325973510742e-01) (8, 2.23033338785171508789e-01) (0, 9.65670764446258544922e-01) (1, -8.40490758419036865234e-01) (2, -1.50655162334442138672e+00) (3, 6.34686946868896484375e-01) (4, 1.16882061958312988281e+00) (5, 1.19005024433135986328e-01) (6, -2.71297931671142578125e-01) (7, 2.19535693526268005371e-01) (8, 8.17145556211471557617e-02) (0, -9.27097737789154052734e-01) (1, 1.72698867321014404297e+00) (2, 1.33389949798583984375e-01) (3, -8.72738420963287353516e-01) (4, 1.40915453433990478516e-01) (5, -1.64044058322906494141e+00) (6, 1.29900276660919189453e+00) (7, 1.12648463249206542969e+00) (8, 7.03972876071929931641e-01) (0, 1.13787150382995605469e+00) (1, 1.03226833045482635498e-01) (2, 1.25390961766242980957e-01) (3, 6.29022181034088134766e-01) (4, -3.03885430097579956055e-01) (5, -5.46712219715118408203e-01) (6, 2.79013663530349731445e-01) (7, 1.92512035369873046875e+00) (8, 4.82869237661361694336e-01) (9, -1.78036642074584960938e+00) (10, -7.64208555221557617188e-01) (11, 5.74053585529327392578e-01) (12, 4.94243711233139038086e-01) (13, -4.00098234415054321289e-01) (14, 1.10649690628051757812e+01) (15, -1.08311843872070312500e+00) (16, 5.83567321300506591797e-01) (17, 2.59792894124984741211e-01) (9, 4.19297695159912109375e+00) (10, 6.53758001327514648438e+00) (11, -1.68071234226226806641e+00) (12, 1.09984147548675537109e+00) (13, 8.57135176658630371094e-01) (14, -4.64201498031616210938e+00) (15, -1.31979119777679443359e+00) (16, -5.15381097793579101562e-02) (17, -2.00107857584953308105e-01) 
