FANN_FLO_2.1
num_layers=3
learning_rate=0.700000
connection_rate=1.000000
network_type=0
learning_momentum=0.000000
training_algorithm=2
train_error_function=1
train_stop_function=0
cascade_output_change_fraction=0.010000
quickprop_decay=-0.000100
quickprop_mu=1.750000
rprop_increase_factor=1.200000
rprop_decrease_factor=0.500000
rprop_delta_min=0.000000
rprop_delta_max=50.000000
rprop_delta_zero=0.100000
cascade_output_stagnation_epochs=12
cascade_candidate_change_fraction=0.010000
cascade_candidate_stagnation_epochs=12
cascade_max_out_epochs=150
cascade_min_out_epochs=50
cascade_max_cand_epochs=150
cascade_min_cand_epochs=50
cascade_num_candidate_groups=2
bit_fail_limit=3.49999994039535522461e-01
cascade_candidate_limit=1.00000000000000000000e+03
cascade_weight_multiplier=4.00000005960464477539e-01
cascade_activation_functions_count=10
cascade_activation_functions=3 5 7 8 10 11 14 15 16 17 
cascade_activation_steepnesses_count=4
cascade_activation_steepnesses=2.50000000000000000000e-01 5.00000000000000000000e-01 7.50000000000000000000e-01 1.00000000000000000000e+00 
layer_sizes=9 5 5 
scale_included=0
neurons (num_inputs, activation_function, activation_steepness)=(0, 0, 0.00000000000000000000e+00) (0, 0, 0.00000000000000000000e+00) (0, 0, 0.00000000000000000000e+00) (0, 0, 0.00000000000000000000e+00) (0, 0, 0.00000000000000000000e+00) (0, 0, 0.00000000000000000000e+00) (0, 0, 0.00000000000000000000e+00) (0, 0, 0.00000000000000000000e+00) (0, 0, 0.00000000000000000000e+00) (9, 5, 5.00000000000000000000e-01) (9, 5, 5.00000000000000000000e-01) (9, 5, 5.00000000000000000000e-01) (9, 5, 5.00000000000000000000e-01) (0, 5, 0.00000000000000000000e+00) (5, 5, 5.00000000000000000000e-01) (5, 5, 5.00000000000000000000e-01) (5, 5, 5.00000000000000000000e-01) (5, 5, 5.00000000000000000000e-01) (0, 5, 0.00000000000000000000e+00) 
connections (connected_to_neuron, weight)=(0, 7.63138651847839355469e-01) (1, -7.18594729900360107422e-01) (2, 2.27271318435668945312e+00) (3, 2.66519665718078613281e-01) (4, 6.47167503833770751953e-01) (5, 6.28645420074462890625e-01) (6, 4.56900447607040405273e-02) (7, -1.24416363239288330078e+00) (8, -8.67238163948059082031e-01) (0, -2.24319100379943847656e+00) (1, -2.94845819473266601562e-01) (2, 1.68854582309722900391e+00) (3, 7.15910270810127258301e-02) (4, 1.22917866706848144531e+00) (5, 2.10995778441429138184e-01) (6, 5.88192045688629150391e-01) (7, 9.30282831192016601562e-01) (8, 2.26596504449844360352e-01) (0, -8.51576447486877441406e-01) (1, -2.42437258362770080566e-01) (2, 5.19135057926177978516e-01) (3, 7.88027465343475341797e-01) (4, 1.31424188613891601562e-01) (5, 2.85646259784698486328e-01) (6, -9.30277943611145019531e-01) (7, -8.07030200958251953125e-01) (8, -2.06503540277481079102e-01) (0, -5.66396176815032958984e-01) (1, 6.16602361202239990234e-01) (2, 3.10753256082534790039e-01) (3, 6.73232972621917724609e-01) (4, 1.37026924639940261841e-02) (5, 5.65347015857696533203e-01) (6, -3.83881390094757080078e-01) (7, 9.36187356710433959961e-02) (8, -3.67853790521621704102e-02) (9, -1.73106307983398437500e+01) (10, 1.20075988769531250000e+01) (11, -6.32320261001586914062e+00) (12, -5.63845300674438476562e+00) (13, 1.11124575138092041016e+00) (9, -6.86476182937622070312e+00) (10, 3.52522735595703125000e+01) (11, -7.13829946517944335938e+00) (12, -7.64572906494140625000e+01) (13, 6.98743045330047607422e-01) (9, 1.36494426727294921875e+01) (10, -2.07266101837158203125e+01) (11, 1.90833568572998046875e+01) (12, 5.21409835815429687500e+01) (13, 6.62230327725410461426e-02) (9, 8.80252170562744140625e+00) (10, -2.78756542205810546875e+01) (11, -2.89318442344665527344e+00) (12, 3.63835983276367187500e+01) (13, 2.08530664443969726562e+00) 
