FANN_FLO_2.1
num_layers=3
learning_rate=0.700000
connection_rate=1.000000
network_type=0
learning_momentum=0.000000
training_algorithm=2
train_error_function=1
train_stop_function=0
cascade_output_change_fraction=0.010000
quickprop_decay=-0.000100
quickprop_mu=1.750000
rprop_increase_factor=1.200000
rprop_decrease_factor=0.500000
rprop_delta_min=0.000000
rprop_delta_max=50.000000
rprop_delta_zero=0.100000
cascade_output_stagnation_epochs=12
cascade_candidate_change_fraction=0.010000
cascade_candidate_stagnation_epochs=12
cascade_max_out_epochs=150
cascade_min_out_epochs=50
cascade_max_cand_epochs=150
cascade_min_cand_epochs=50
cascade_num_candidate_groups=2
bit_fail_limit=3.49999994039535522461e-01
cascade_candidate_limit=1.00000000000000000000e+03
cascade_weight_multiplier=4.00000005960464477539e-01
cascade_activation_functions_count=10
cascade_activation_functions=3 5 7 8 10 11 14 15 16 17 
cascade_activation_steepnesses_count=4
cascade_activation_steepnesses=2.50000000000000000000e-01 5.00000000000000000000e-01 7.50000000000000000000e-01 1.00000000000000000000e+00 
layer_sizes=9 9 7 
scale_included=0
neurons (num_inputs, activation_function, activation_steepness)=(0, 0, 0.00000000000000000000e+00) (0, 0, 0.00000000000000000000e+00) (0, 0, 0.00000000000000000000e+00) (0, 0, 0.00000000000000000000e+00) (0, 0, 0.00000000000000000000e+00) (0, 0, 0.00000000000000000000e+00) (0, 0, 0.00000000000000000000e+00) (0, 0, 0.00000000000000000000e+00) (0, 0, 0.00000000000000000000e+00) (9, 5, 5.00000000000000000000e-01) (9, 5, 5.00000000000000000000e-01) (9, 5, 5.00000000000000000000e-01) (9, 5, 5.00000000000000000000e-01) (9, 5, 5.00000000000000000000e-01) (9, 5, 5.00000000000000000000e-01) (9, 5, 5.00000000000000000000e-01) (9, 5, 5.00000000000000000000e-01) (0, 5, 0.00000000000000000000e+00) (9, 5, 5.00000000000000000000e-01) (9, 5, 5.00000000000000000000e-01) (9, 5, 5.00000000000000000000e-01) (9, 5, 5.00000000000000000000e-01) (9, 5, 5.00000000000000000000e-01) (9, 5, 5.00000000000000000000e-01) (0, 5, 0.00000000000000000000e+00) 
connections (connected_to_neuron, weight)=(0, -2.02576622366905212402e-01) (1, -3.00483256578445434570e-01) (2, -4.03765171766281127930e-01) (3, -3.62027764320373535156e-01) (4, -4.51619625091552734375e-01) (5, 1.14147961139678955078e+00) (6, -8.26738297939300537109e-01) (7, -4.97100830078125000000e-01) (8, -3.05822372436523437500e-01) (0, 1.50000000000000000000e+03) (1, 9.98977661132812500000e+02) (2, 1.50000000000000000000e+03) (3, 1.50000000000000000000e+03) (4, 1.50000000000000000000e+03) (5, 1.50000000000000000000e+03) (6, 9.86822692871093750000e+02) (7, 1.50000000000000000000e+03) (8, 1.50000000000000000000e+03) (0, 1.50000000000000000000e+03) (1, -1.14747229003906250000e+03) (2, 1.09092663574218750000e+03) (3, 1.49682141113281250000e+03) (4, 1.50000000000000000000e+03) (5, 1.41495373535156250000e+03) (6, -1.49997900390625000000e+03) (7, 1.50000000000000000000e+03) (8, 1.46922412109375000000e+03) (0, 4.76628810167312622070e-01) (1, -3.12043100595474243164e-01) (2, 4.61806029081344604492e-01) (3, 4.74038153886795043945e-01) (4, -4.21458810567855834961e-01) (5, 3.80678504705429077148e-01) (6, 4.67876523733139038086e-01) (7, -1.78164720535278320312e+00) (8, 4.61957544088363647461e-01) (0, -7.07113087177276611328e-01) (1, 2.48434185981750488281e+00) (2, -1.92986838519573211670e-02) (3, -6.32921755313873291016e-02) (4, -2.78911273926496505737e-02) (5, -9.27011594176292419434e-02) (6, -9.80333685874938964844e-02) (7, -1.86578601598739624023e-01) (8, -6.10302761197090148926e-02) (0, 5.81641197204589843750e-02) (1, 3.62004995346069335938e-01) (2, -2.47655108571052551270e-01) (3, -1.76920413970947265625e-01) (4, -2.05776393413543701172e-01) (5, 1.52922129631042480469e+00) (6, -5.01627683639526367188e-01) (7, -3.08932334184646606445e-01) (8, -9.68203619122505187988e-02) (0, 4.32794600725173950195e-01) (1, 4.19686645269393920898e-01) (2, 3.91942113637924194336e-01) (3, 1.45918890833854675293e-01) (4, 1.70408383011817932129e-01) (5, 8.79296660423278808594e-02) (6, 7.73548036813735961914e-02) (7, -1.21889972686767578125e+00) (8, 1.01291008293628692627e-01) (0, -1.30073177814483642578e+00) (1, 1.65219426155090332031e+00) (2, -2.13774561882019042969e+00) (3, 2.70789057016372680664e-01) (4, 2.89950191974639892578e-01) (5, 4.42454099655151367188e-01) (6, 5.75543940067291259766e-01) (7, 2.05953598022460937500e-01) (8, 4.11671370267868041992e-01) (9, 8.63487422466278076172e-02) (10, 1.51989102363586425781e+00) (11, 1.49793851375579833984e+00) (12, 2.49426841735839843750e+01) (13, 1.92979698181152343750e+01) (14, 4.77437362670898437500e+01) (15, -5.52131996154785156250e+01) (16, -1.13702764511108398438e+01) (17, 1.69536352157592773438e+00) (9, -4.96363580226898193359e-01) (10, 6.88957393169403076172e-01) (11, 5.35737097263336181641e-01) (12, 1.05128583908081054688e+01) (13, 3.17892379760742187500e+01) (14, -3.05737285614013671875e+01) (15, -3.21174736022949218750e+01) (16, -2.53229598999023437500e+01) (17, 1.67924702167510986328e-01) (9, 4.15050238370895385742e-01) (10, 8.61334979534149169922e-01) (11, 9.12936270236968994141e-01) (12, -1.19783239364624023438e+01) (13, -3.19771728515625000000e+01) (14, -1.17514314651489257812e+01) (15, 2.70902156829833984375e+01) (16, 1.83554840087890625000e+01) (17, 8.10290455818176269531e-01) (9, -1.16760683059692382812e+00) (10, -1.80989444255828857422e-01) (11, -1.76588445901870727539e-01) (12, 3.76109504699707031250e+01) (13, 5.27963972091674804688e+00) (14, -3.76940956115722656250e+01) (15, -4.08544692993164062500e+01) (16, 1.46954345703125000000e+01) (17, -1.69052517414093017578e+00) (9, 7.62010192871093750000e+00) (10, 1.22213428840041160583e-02) (11, 1.57649755477905273438e-01) (12, -3.82364349365234375000e+01) (13, -1.58337402343750000000e+01) (14, 6.69545974731445312500e+01) (15, 7.41379699707031250000e+01) (16, -5.39144372940063476562e+00) (17, -3.83451998233795166016e-01) (9, 8.31974819302558898926e-02) (10, 5.39879262447357177734e-01) (11, 6.26340329647064208984e-01) (12, -1.59848308563232421875e+01) (13, -8.81622791290283203125e+00) (14, -5.08539237976074218750e+01) (15, 1.36931800842285156250e+01) (16, 1.40324468612670898438e+01) (17, 6.17918312549591064453e-01) 
