FANN_FLO_2.1
num_layers=3
learning_rate=0.700000
connection_rate=1.000000
network_type=0
learning_momentum=0.000000
training_algorithm=2
train_error_function=1
train_stop_function=0
cascade_output_change_fraction=0.010000
quickprop_decay=-0.000100
quickprop_mu=1.750000
rprop_increase_factor=1.200000
rprop_decrease_factor=0.500000
rprop_delta_min=0.000000
rprop_delta_max=50.000000
rprop_delta_zero=0.100000
cascade_output_stagnation_epochs=12
cascade_candidate_change_fraction=0.010000
cascade_candidate_stagnation_epochs=12
cascade_max_out_epochs=150
cascade_min_out_epochs=50
cascade_max_cand_epochs=150
cascade_min_cand_epochs=50
cascade_num_candidate_groups=2
bit_fail_limit=3.49999994039535522461e-01
cascade_candidate_limit=1.00000000000000000000e+03
cascade_weight_multiplier=4.00000005960464477539e-01
cascade_activation_functions_count=10
cascade_activation_functions=3 5 7 8 10 11 14 15 16 17 
cascade_activation_steepnesses_count=4
cascade_activation_steepnesses=2.50000000000000000000e-01 5.00000000000000000000e-01 7.50000000000000000000e-01 1.00000000000000000000e+00 
layer_sizes=9 9 8 
scale_included=0
neurons (num_inputs, activation_function, activation_steepness)=(0, 0, 0.00000000000000000000e+00) (0, 0, 0.00000000000000000000e+00) (0, 0, 0.00000000000000000000e+00) (0, 0, 0.00000000000000000000e+00) (0, 0, 0.00000000000000000000e+00) (0, 0, 0.00000000000000000000e+00) (0, 0, 0.00000000000000000000e+00) (0, 0, 0.00000000000000000000e+00) (0, 0, 0.00000000000000000000e+00) (9, 5, 5.00000000000000000000e-01) (9, 5, 5.00000000000000000000e-01) (9, 5, 5.00000000000000000000e-01) (9, 5, 5.00000000000000000000e-01) (9, 5, 5.00000000000000000000e-01) (9, 5, 5.00000000000000000000e-01) (9, 5, 5.00000000000000000000e-01) (9, 5, 5.00000000000000000000e-01) (0, 5, 0.00000000000000000000e+00) (9, 5, 5.00000000000000000000e-01) (9, 5, 5.00000000000000000000e-01) (9, 5, 5.00000000000000000000e-01) (9, 5, 5.00000000000000000000e-01) (9, 5, 5.00000000000000000000e-01) (9, 5, 5.00000000000000000000e-01) (9, 5, 5.00000000000000000000e-01) (0, 5, 0.00000000000000000000e+00) 
connections (connected_to_neuron, weight)=(0, 1.64324417710304260254e-01) (1, 1.81971156597137451172e+00) (2, -7.15350881218910217285e-02) (3, -1.69364586472511291504e-02) (4, -2.90766906738281250000e+00) (5, 4.99049216508865356445e-01) (6, 1.10444486141204833984e-01) (7, 4.53670263290405273438e-01) (8, 4.12296235561370849609e-01) (0, -3.88390362262725830078e-01) (1, -1.63259387016296386719e-01) (2, -4.26142096519470214844e-01) (3, -5.13451278209686279297e-01) (4, -1.79473781585693359375e+00) (5, -1.89689218997955322266e-01) (6, -7.21933126449584960938e-01) (7, 1.04344642162322998047e+00) (8, -2.34572067856788635254e-01) (0, 2.03949868679046630859e-01) (1, 6.92816495895385742188e-01) (2, 3.25358718633651733398e-01) (3, 2.10198432207107543945e-01) (4, 2.38220304250717163086e-01) (5, -2.59154582023620605469e+00) (6, 2.14121341705322265625e-01) (7, 1.58954799175262451172e-01) (8, 1.82087764143943786621e-01) (0, -1.03800916671752929688e+00) (1, -4.98930633068084716797e-01) (2, 2.23147988319396972656e-01) (3, 4.46929372847080230713e-02) (4, 9.06407684087753295898e-02) (5, 7.26940557360649108887e-02) (6, 4.62365061044692993164e-01) (7, 4.83886659145355224609e-01) (8, 2.20081344246864318848e-01) (0, 3.23102362453937530518e-02) (1, 1.18217885494232177734e+00) (2, 1.93288207054138183594e-01) (3, 3.39226931333541870117e-01) (4, 1.64883166551589965820e-01) (5, 1.89672335982322692871e-01) (6, 2.11292910575866699219e+00) (7, -5.10666036605834960938e+00) (8, 2.70438104867935180664e-01) (0, 5.86626231670379638672e-01) (1, -3.65579485893249511719e-01) (2, 4.62267577648162841797e-01) (3, 4.03781652450561523438e-01) (4, 5.04915177822113037109e-01) (5, 3.01124781370162963867e-01) (6, 8.68174374103546142578e-01) (7, 3.18367034196853637695e-01) (8, 2.18232750892639160156e-01) (0, 8.44867885112762451172e-01) (1, -7.06720128655433654785e-02) (2, -6.46857559680938720703e-01) (3, -5.07849395275115966797e-01) (4, -4.43569980561733245850e-02) (5, -1.74687549471855163574e-01) (6, 7.43833601474761962891e-01) (7, -5.42506277561187744141e-02) (8, -1.43918871879577636719e-01) (0, 1.35726511478424072266e-01) (1, 3.57757180929183959961e-01) (2, -6.49756312370300292969e-01) (3, -7.22525060176849365234e-01) (4, 4.84305083751678466797e-01) (5, -1.42803117632865905762e-01) (6, 2.80668348073959350586e-01) (7, 2.88164019584655761719e-02) (8, 1.02196477353572845459e-01) (9, 1.28644752502441406250e+01) (10, 8.86719703674316406250e-01) (11, -1.32502403259277343750e+01) (12, 1.89129810333251953125e+01) (13, -5.73243665695190429688e+00) (14, 4.19391125440597534180e-01) (15, -1.73467922210693359375e+01) (16, 3.47528038024902343750e+01) (17, 4.12815093994140625000e-01) (9, -1.00010261535644531250e+01) (10, 6.15942895412445068359e-01) (11, -4.29214096069335937500e+00) (12, -5.24140262603759765625e+00) (13, -1.68253402709960937500e+01) (14, 7.86602258682250976562e-01) (15, -1.44283075332641601562e+01) (16, 4.01043701171875000000e+01) (17, 1.27343678474426269531e+00) (9, -2.38416934013366699219e+00) (10, 6.75530552864074707031e-01) (11, 7.85792636871337890625e+00) (12, 4.38043327331542968750e+01) (13, 3.17140340805053710938e+00) (14, 6.49827659130096435547e-01) (15, 2.99550418853759765625e+01) (16, -1.95391368865966796875e+01) (17, -2.21776664257049560547e-01) (9, 9.62515449523925781250e+00) (10, 5.42441785335540771484e-01) (11, -3.25669813156127929688e+00) (12, -3.59423942565917968750e+01) (13, 6.95384025573730468750e+00) (14, 6.16047978401184082031e-01) (15, 1.78679637908935546875e+01) (16, -4.21146850585937500000e+01) (17, 5.10306715965270996094e-01) (9, -2.54644908905029296875e+01) (10, -5.77166557312011718750e-01) (11, 3.51499390602111816406e+00) (12, -5.70730626583099365234e-01) (13, 1.03107309341430664062e+01) (14, 7.91697680950164794922e-01) (15, 9.40586566925048828125e+00) (16, -6.13608932495117187500e+01) (17, 1.08090043067932128906e+00) (9, 7.43304491043090820312e+00) (10, 1.21041560173034667969e+00) (11, 2.17731761932373046875e+01) (12, -3.90530128479003906250e+01) (13, -9.67368030548095703125e+00) (14, 5.55413588881492614746e-02) (15, -1.49156913757324218750e+01) (16, 1.72462959289550781250e+01) (17, 4.86777573823928833008e-01) (9, 1.47039527893066406250e+01) (10, 1.47536122798919677734e+00) (11, -1.37099189758300781250e+01) (12, 2.09787349700927734375e+01) (13, 1.19370212554931640625e+01) (14, -2.84952104091644287109e-01) (15, -1.06926212310791015625e+01) (16, 4.24237174987792968750e+01) (17, -2.85026907920837402344e-01) 
